0
0
0
33
0
27
8
0
0
0
-31
-42
-40
-49
-52
0
-41
-68
-73
-66
-55
-33
-13
0
13
54
0
67
0
0
0
9
0
0
0
0
0
-45
15
-21
35
0
35
0
0
-45
-89
0
0
0
0
0
0
0
0
0
160
0
-5
-95
0
0
0
0
17
31
0
34
0
0
0
42
0
70
0
61
40
25
0
0
0
0
0
0
0
0
80
0
108
82
84
80
0
0
0
0
0
56
14
0
40
0
0
31
0
19
-8
-17
-21
0
-37
-58
-97
-117
-133
0
0
0
-45
0
-11
-26
-21
-1
-1
-12
-25
0
-14
-16
10
-8
-1
17
0
0
0
38
7
0
9
-18
-19
0
-31
0
0
0
0
0
0
0
67
0
65
0
0
0
0
3
0
1
3
-4
-11
-19
0
0
-18
13
-24
0
-14
-10
0
0
0
0
16
0
27
0
64
46
0
0
98
0
-92
-20
0
0
65
84
0
0
-307
0
-103
20
0
207
0
0
0
0
2
24
66
0
62
0
45
13
-17
0
0
-36
0
0
17
0
-50
-75
0
-71
-59
-53
0
0
-19
-19
-8
-22
-17
17
0
0
12
14
0
0
0
17
10
0
0
-24
-33
-41
0
-77
-68
0
-40
-26
0
0
0
-18
9
9
35
32
0
3
0
11
-22
0
27
0
0
-14
0
0
2
22
24
-5
19
18
0
26
35
0
0
0
16
0
19
47
28
10
0
0
26
14
0
-21
0
-1
3
0
-9
0
-10
0
0
0
-6
23
29
19
0
22
17
9
8
0
23
-12
-23
-38
-69
-79
0
0
0
0
-19
16
44
58
0
61
0
0
0
54
0
0
10
64
0
94
0
0
0
0
-204
-135
-13
85
59
-24
-6
0
-23
0
24
0
60
0
-26
-33
-24
-14
-21
0
0
31
42
96
0
141
0
118
0
0
65
0
35
0
49
32
0
0
0
0
-23
0
0
0
0
0
0
-111
-119
-106
0
-69
-48
0
0
19
27
3
17
0
46
34
41
0
34
0
-8
-15
0
7
0
0
18
-7
0
0
-6
14
0
0
-31
0
-7
0
0
0
0
0
-18
4
0
-11
-1
-34
-12
0
0
31
0
29
0
0
38
0
17
0
29
-2
-11
0
-29
0
-27
-15
0
-3
0
0
-54
0
-38
-23
-22
11
0
35
32
49
0
45
0
2
8
0
-44
0
0
0
8
0
25
0
0
23
0
8
0
0
0
-50
-72
0
-21
0
32
0
77
86
38
0
-66
0
36
31
23
-9
-3
-11
0
48
45
0
24
0
-8
-15
0
-9
0
0
-21
0
-40
-41
0
0
0
-27
-37
0
0
-46
-38
-29
0
0
12
-24
0
0
0
0
-9
0
0
0
0
0
63
0
0
0
29
0
-2
0
6
0
31
0
0
18
0
32
0
-10
-4
0
0
19
0
0
56
25
46
58
0
0
0
8
0
0
-32
0
0
0
-2
-12
-9
0
-109
39
25
29
14
19
0
-8
0
0
-10
-32
2
-21
0
0
0
0
0
0
7
0
55
45
0
0
0
40
0
27
0
-17
0
-76
-81
-135
0
0
49
0
0
-24
0
0
6
0
-95
-39
97
0
0
0
-16
0
299
0
176
0
0
0
-98
-60
-36
-1
0
0
0
14
20
31
38
0
117
0
110
0
0
63
0
0
0
-30
-46
-69
0
-45
-72
-77
-55
0
-74
-76
0
-77
-58
-76
-80
-87
-87
0
-37
0
-12
0
0
25
0
0
58
0
52
0
38
12
-19
-34
-31
0
1
-14
-20
-12
0
43
0
53
35
44
0
0
37
14
0
0
-1
0
0
3
-10
10
0
16
12
0
47
0
21
22
6
49
0
17
3
18
-7
0
0
-6
-8
-11
0
7
10
0
29
26
18
0
3
0
0
0
0
0
-2
0
0
0
0
0
32
48
25
0
41
0
38
4
-4
-41
-103
-145
-175
0
0
90
157
131
31
68
0
168
-37
-35
54
0
144
0
42
0
9
0
56
33
0
1
0
28
3
19
19
7
0
0
-44
-42
-31
-55
-71
-85
-92
-95
-99
-91
0
0
-113
-123
0
0
-111
0
0
0
-132
0
0
0
-84
0
0
-8
0
0
29
23
0
2
7
0
-35
-10
-12
0
0
-4
-1
-25
-27
1
0
27
5
25
-5
0
-29
18
-12
-1
-18
-13
0
0
0
50
76
0
0
0
0
0
0
0
0
39
0
62
0
127
-294
0
-23
-34
-35
0
0
-47
0
-31
0
-61
0
0
0
0
0
7
5
0
37
0
0
0
0
0
44
22
0
49
48
54
0
45
0
14
0
12
37
-21
0
0
0
-15
0
63
0
56
0
0
-129
0
0
0
223
37
0
-65
-96
-89
-28
0
0
-25
-28
-15
0
-42
-81
-112
0
0
-91
0
-29
-34
-26
0
-21
-11
0
0
-12
-15
0
0
39
0
62
0
50
0
43
31
14
0
-3
3
0
0
0
0
-81
-58
-16
0
0
-2
-1
18
20
23
0
-11
0
-15
0
0
0
-19
-16
-14
-6
5
6
-8
18
22
0
0
13
0
0
28
0
0
21
-23
20
0
53
0
-7
0
6
-10
0
0
0
-25
50
-34
0
0
-30
-22
0
0
-22
-21
-13
-12
13
-10
2
7
-7
0
-5
0
-1
-5
7
2
0
7
18
18
48
31
0
56
0
50
55
0
0
27
60
0
0
99
0
27
0
-11
0
0
0
103
0
46
0
0
-134
-179
0
0
0
0
0
-210
0
13
0
51
22
0
15
0
0
-24
0
-39
-21
-22
-26
-49
0
0
0
-40
-38
-31
-12
-24
-31
1
-19
-13
2
0
13
0
39
51
58
0
0
0
70
0
0
0
50
57
0
0
0
0
19
23
-28
-37
-48
-30
-20
-28
0
-57
0
0
-25
-16
-17
0
-6
0
21
0
0
52
37
0
47
0
51
0
0
0
0
52
61
26
20
-18
0
0
0
-52
50
0
0
0
0
1
0
21
2
0
11
0
0
-6
2
0
6
0
45
43
44
0
0
56
0
46
42
0
-2
-9
-13
0
-19
-6
23
37
41
-113
-21
0
-7
-44
0
-85
0
-80
0
0
0
-19
20
-53
-105
-41
0
49
28
0
66
0
0
0
0
0
82
82
0
0
0
0
0
0
92
70
0
0
37
21
0
36
0
74
64
0
0
67
54
42
30
54
26
0
14
-25
-46
-71
0
0
0
-82
0
-71
-83
-94
0
0
0
-76
-57
0
0
-33
-26
-57
0
-27
0
0
0
0
-18
0
-3
9
12
35
0
0
0
0
30
38
0
-2
4
0
0
6
0
0
0
0
8
0
6
0
6
9
-1
7
-76
-28
-22
0
0
0
9
12
0
27
27
33
52
56
80
0
63
37
33
0
23
0
0
7
7
0
0
12
11
2
0
0
0
-4
0
30
0
34
-22
91
97
20
-67
-27
0
66
0
2
-74
-134
0
-82
-69
-7
24
0
-25
-27
0
-97
-81
24
0
-10
0
-46
0
0
0
40
40
0
0
0
0
0
-5
-8
0
-33
-24
-39
0
-78
0
0
0
-90
0
-111
-102
-70
-96
0
-65
0
0
33
40
0
0
0
0
0
0
38
24
0
0
0
5
0
-2
-5
0
0
-13
-9
1
51
0
61
0
52
45
0
0
0
0
0
0
0
33
10
-4
0
0
0
60
0
0
47
19
10
0
0
0
0
0
28
0
0
-10
-8
-5
0
0
-14
0
0
-12
0
0
0
-19
0
14
0
0
14
0
-8
-19
0
0
-56
-97
0
0
-35
-45
-28
0
0
20
0
0
0
0
26
-32
0
-25
94
0
0
0
63
0
0
0
-86
9
49
29
0
-39
-52
-36
-23
-4
0
0
29
0
30
0
0
0
0
5
-37
-47
-23
-10
-31
14
0
-16
-6
-41
0
-44
0
0
0
-113
0
-104
-86
0
0
0
0
0
0
-28
14
22
30
0
6
0
18
5
0
6
3
18
0
0
0
0
79
0
0
66
33
13
11
0
0
-7
0
0
0
-6
7
9
-12
3
0
0
104
0
118
151
123
130
91
60
0
-16
0
0
-18
-14
0
-24
0
0
3
0
24
5
-2
0
0
-32
-37
-34
0
-59
-52
0
0
-33
0
23
0
36
0
0
0
0
0
0
78
78
0
0
0
0
0
0
0
88
0
0
114
21
-35
-63
0
21
0
79
0
-114
0
-48
-10
-72
0
0
0
0
0
-154
-144
-128
0
-67
0
0
0
33
56
0
0
92
120
0
0
0
24
27
45
0
0
25
0
23
0
-21
0
0
0
-38
-34
-34
-6
0
0
0
-16
-6
0
20
36
34
81
105
0
106
0
0
0
72
65
0
0
-17
-11
-50
0
-45
-68
0
0
0
-42
0
0
5
-9
-26
0
0
0
19
0
-21
-4
11
5
-15
-36
0
3
23
-15
0
0
12
-10
0
-13
0
0
0
0
7
2
9
0
0
0
12
0
21
23
32
26
0
0
5
0
-18
-19
0
0
5
4
0
0
1
20
0
12
-9
-32
-47
-36
-46
0
0
18
0
-30
7
55
61
69
29
0
0
0
-72
0
-33
-23
-17
0
0
31
-41
-126
0
-161
0
0
0
-79
0
0
-79
-48
-13
22
36
0
-5
-6
0
0
0
0
-3
0
0
0
0
-17
-16
-9
-18
0
-19
0
0
0
4
-3
0
0
69
69
86
0
103
0
0
0
0
-12
-37
-46
0
-44
0
0
-21
4
5
15
0
15
25
0
38
11
0
20
-1
21
52
36
0
34
46
21
13
0
-33
-44
0
0
0
0
0
48
0
0
28
54
41
0
-14
44
0
0
0
0
50
0
0
-1
-2
0
0
-47
-58
0
0
0
0
0
-27
-35
0
0
-16
-7
0
12
25
77
0
0
0
0
49
37
33
0
0
-11
-42
0
15
0
0
-11
-16
0
-5
0
-57
0
68
134
0
-45
-152
-86
0
148
152
116
0
0
0
0
116
95
85
0
0
127
103
70
43
0
0
0
-3
-5
0
21
48
0
-9
-8
-10
-31
-22
0
0
0
0
-51
0
0
-15
-11
7
7
16
13
23
0
0
-42
0
-67
0
-123
0
-164
0
0
0
-164
-148
-126
0
0
0
-99
-61
0
-20
0
0
-1
0
30
0
29
19
18
0
0
-35
-15
-27
0
-11
4
0
35
-1
-44
0
84
0
0
0
0
0
85
0
0
13
0
34
41
0
0
15
8
0
6
-15
0
-18
-8
0
0
-42
0
0
-48
-35
-38
0
-28
0
0
0
-53
-32
0
-38
-27
0
-226
0
0
0
63
0
143
67
37
-81
0
-64
43
64
0
-103
20
126
0
0
79
0
231
189
52
-25
-2
13
0
76
0
52
4
-12
-1
12
-6
-17
-33
0
-76
-69
0
0
-46
-20
-14
0
-3
-14
-2
-8
-30
-20
-46
-6
7
-11
0
-30
-32
-43
0
-49
-44
-26
-28
-32
0
-14
20
0
-1
0
0
0
0
-14
0
0
0
0
17
0
12
0
0
0
4
0
0
17
0
0
0
42
18
23
26
-15
0
0
0
45
48
0
0
0
12
0
0
-1
-8
-160
-67
-52
-39
0
0
0
0
0
-6
4
27
0
23
27
0
0
0
0
-11
0
-32
-37
-53
-52
0
-93
0
-69
-19
0
0
0
0
34
0
65
-13
-67
85
62
0
0
50
0
56
0
0
0
0
0
-26
0
-26
-8
0
-36
36
0
13
0
0
103
61
65
35
-5
-9
31
0
0
0
20
34
10
14
27
0
0
0
40
34
12
0
15
-23
0
0
0
-43
0
-30
-62
0
0
0
7
20
73
76
86
117
112
87
0
57
25
0
16
22
0
0
0
-66
0
0
0
-57
-52
0
-49
0
0
0
-84
-18
-5
-30
0
-66
0
0
0
-61
0
0
-58
-27
-26
-37
-8
-15
-29
-40
0
-23
-29
0
0
-117
